digraph Tree {
node [shape=box] ;
rankdir=LR ;
0 [label="promoter_ZBTB33 <= 21.002\nmse = 0.454\nsamples = 5581\nvalue = 0.477"] ;
1 [label="promoter_RXRA <= 7.131\nmse = 0.568\nsamples = 2632\nvalue = 0.083"] ;
0 -> 1 [labeldistance=2.5, labelangle=-45, headlabel="True"] ;
2 [label="promoter_H3K27me3 <= 3.196\nmse = 0.603\nsamples = 1961\nvalue = -0.094"] ;
1 -> 2 ;
3 [label="promoter_CUX1 <= 7.95\nmse = 0.539\nsamples = 1946\nvalue = -0.073"] ;
2 -> 3 ;
4 [label="promoter_CEBPB <= 50.634\nmse = 0.471\nsamples = 1767\nvalue = -0.142"] ;
3 -> 4 ;
5 [label="promoter_ELK1 <= 38.303\nmse = 0.422\nsamples = 1756\nvalue = -0.124"] ;
4 -> 5 ;
6 [label="(...)"] ;
5 -> 6 ;
805 [label="(...)"] ;
5 -> 805 ;
890 [label="enhancer_H3K36me3 <= 10.232\nmse = 0.616\nsamples = 11\nvalue = -2.916"] ;
4 -> 890 ;
891 [label="(...)"] ;
890 -> 891 ;
894 [label="(...)"] ;
890 -> 894 ;
895 [label="promoter_MXI1 <= 109.902\nmse = 0.692\nsamples = 179\nvalue = 0.609"] ;
3 -> 895 ;
896 [label="hiC_vcExpected <= 1.194\nmse = 0.372\nsamples = 73\nvalue = -0.207"] ;
895 -> 896 ;
897 [label="(...)"] ;
896 -> 897 ;
926 [label="(...)"] ;
896 -> 926 ;
947 [label="enhancer_H3K4me2 <= 24.462\nmse = 0.138\nsamples = 106\nvalue = 1.17"] ;
895 -> 947 ;
948 [label="(...)"] ;
947 -> 948 ;
999 [label="(...)"] ;
947 -> 999 ;
1014 [label="enhancer_EBF1 <= 88.009\nmse = 1.485\nsamples = 15\nvalue = -2.81"] ;
2 -> 1014 ;
1015 [label="promoter_CHD2 <= 63.289\nmse = 0.328\nsamples = 11\nvalue = -2.138"] ;
1014 -> 1015 ;
1016 [label="enhancer_H2AZ <= 2.055\nmse = 0.005\nsamples = 2\nvalue = -0.931"] ;
1015 -> 1016 ;
1017 [label="(...)"] ;
1016 -> 1017 ;
1018 [label="(...)"] ;
1016 -> 1018 ;
1019 [label="enhancer_MXI1 <= 46.963\nmse = 0.004\nsamples = 9\nvalue = -2.406"] ;
1015 -> 1019 ;
1020 [label="(...)"] ;
1019 -> 1020 ;
1021 [label="(...)"] ;
1019 -> 1021 ;
1022 [label="enhancer_IRF4 <= 48.5\nmse = 0.0\nsamples = 4\nvalue = -4.66"] ;
1014 -> 1022 ;
1023 [label="mse = 0.0\nsamples = 2\nvalue = -4.665"] ;
1022 -> 1023 ;
1024 [label="mse = 0.0\nsamples = 2\nvalue = -4.656"] ;
1022 -> 1024 ;
1025 [label="promoter_CREB1 <= 207.915\nmse = 0.111\nsamples = 671\nvalue = 0.598"] ;
1 -> 1025 ;
1026 [label="promoter_MYC <= 20.931\nmse = 0.047\nsamples = 15\nvalue = -0.593"] ;
1025 -> 1026 ;
1027 [label="enhancer_H3K4me3 <= 11.673\nmse = 0.001\nsamples = 9\nvalue = -0.436"] ;
1026 -> 1027 ;
1028 [label="hiC_vc <= 13.246\nmse = 0.0\nsamples = 6\nvalue = -0.419"] ;
1027 -> 1028 ;
1029 [label="(...)"] ;
1028 -> 1029 ;
1030 [label="(...)"] ;
1028 -> 1030 ;
1033 [label="mse = 0.0\nsamples = 3\nvalue = -0.468"] ;
1027 -> 1033 ;
1034 [label="enhancer_MAX <= 13.126\nmse = 0.023\nsamples = 6\nvalue = -0.828"] ;
1026 -> 1034 ;
1035 [label="mse = -0.0\nsamples = 4\nvalue = -0.721"] ;
1034 -> 1035 ;
1036 [label="mse = 0.0\nsamples = 2\nvalue = -1.041"] ;
1034 -> 1036 ;
1037 [label="enhancer_H3K4me2 <= 26.301\nmse = 0.079\nsamples = 656\nvalue = 0.625"] ;
1025 -> 1037 ;
1038 [label="enhancer_H3K4me1 <= 17.642\nmse = 0.027\nsamples = 589\nvalue = 0.67"] ;
1037 -> 1038 ;
1039 [label="promoter_DNase-seq <= 88.0\nmse = 0.024\nsamples = 582\nvalue = 0.674"] ;
1038 -> 1039 ;
1040 [label="(...)"] ;
1039 -> 1040 ;
1041 [label="(...)"] ;
1039 -> 1041 ;
1126 [label="promoter_RUNX3 <= 107.22\nmse = 0.113\nsamples = 7\nvalue = 0.31"] ;
1038 -> 1126 ;
1127 [label="(...)"] ;
1126 -> 1127 ;
1130 [label="(...)"] ;
1126 -> 1130 ;
1131 [label="enhancer_FAIRE-seq <= 0.007\nmse = 0.366\nsamples = 67\nvalue = 0.231"] ;
1037 -> 1131 ;
1132 [label="mse = 0.0\nsamples = 2\nvalue = -0.586"] ;
1131 -> 1132 ;
1133 [label="enhancer_EBF1 <= 34.147\nmse = 0.356\nsamples = 65\nvalue = 0.256"] ;
1131 -> 1133 ;
1134 [label="(...)"] ;
1133 -> 1134 ;
1137 [label="(...)"] ;
1133 -> 1137 ;
1146 [label="promoter_ZBTB33 <= 24.9\nmse = 0.09\nsamples = 2949\nvalue = 0.829"] ;
0 -> 1146 [labeldistance=2.5, labelangle=45, headlabel="False"] ;
1147 [label="enhancer_ELF1 <= 87.66\nmse = 0.057\nsamples = 1965\nvalue = 0.919"] ;
1146 -> 1147 ;
1148 [label="hiC_kr <= 53.483\nmse = 0.041\nsamples = 1957\nvalue = 0.911"] ;
1147 -> 1148 ;
1149 [label="hiC_sqExpected <= 1.735\nmse = 0.035\nsamples = 951\nvalue = 0.812"] ;
1148 -> 1149 ;
1150 [label="enhancer_CAGE <= 22.189\nmse = 0.046\nsamples = 543\nvalue = 0.849"] ;
1149 -> 1150 ;
1151 [label="(...)"] ;
1150 -> 1151 ;
1196 [label="(...)"] ;
1150 -> 1196 ;
1211 [label="enhancer_POLR2A <= 275.753\nmse = 0.015\nsamples = 408\nvalue = 0.762"] ;
1149 -> 1211 ;
1212 [label="(...)"] ;
1211 -> 1212 ;
1227 [label="(...)"] ;
1211 -> 1227 ;
1242 [label="enhancer_CUX1 <= 2.869\nmse = 0.028\nsamples = 1006\nvalue = 1.004"] ;
1148 -> 1242 ;
1243 [label="enhancer_NFYA <= 10.483\nmse = 0.042\nsamples = 222\nvalue = 0.938"] ;
1242 -> 1243 ;
1244 [label="(...)"] ;
1243 -> 1244 ;
1247 [label="(...)"] ;
1243 -> 1247 ;
1252 [label="enhancer_CAGE <= 64.773\nmse = 0.023\nsamples = 784\nvalue = 1.023"] ;
1242 -> 1252 ;
1253 [label="(...)"] ;
1252 -> 1253 ;
1260 [label="(...)"] ;
1252 -> 1260 ;
1265 [label="mse = -0.0\nsamples = 8\nvalue = 2.904"] ;
1147 -> 1265 ;
1266 [label="promoter_H3K79me2 <= 10.98\nmse = 0.108\nsamples = 984\nvalue = 0.648"] ;
1146 -> 1266 ;
1267 [label="promoter_EGR1 <= 36.619\nmse = 0.08\nsamples = 967\nvalue = 0.669"] ;
1266 -> 1267 ;
1268 [label="enhancer_WRNIP1 <= 61.065\nmse = 0.031\nsamples = 242\nvalue = 0.819"] ;
1267 -> 1268 ;
1269 [label="enhancer_CTCF <= 79.861\nmse = 0.017\nsamples = 232\nvalue = 0.831"] ;
1268 -> 1269 ;
1270 [label="(...)"] ;
1269 -> 1270 ;
1379 [label="(...)"] ;
1269 -> 1379 ;
1400 [label="enhancer_CAGE <= 14.82\nmse = 0.278\nsamples = 10\nvalue = 0.545"] ;
1268 -> 1400 ;
1401 [label="(...)"] ;
1400 -> 1401 ;
1402 [label="(...)"] ;
1400 -> 1402 ;
1403 [label="enhancer_H3K4me2 <= 26.301\nmse = 0.086\nsamples = 725\nvalue = 0.619"] ;
1267 -> 1403 ;
1404 [label="promoter_NFYA <= 56.406\nmse = 0.034\nsamples = 663\nvalue = 0.659"] ;
1403 -> 1404 ;
1405 [label="(...)"] ;
1404 -> 1405 ;
1428 [label="(...)"] ;
1404 -> 1428 ;
1529 [label="enhancer_H3K4me1 <= 20.847\nmse = 0.445\nsamples = 62\nvalue = 0.188"] ;
1403 -> 1529 ;
1530 [label="(...)"] ;
1529 -> 1530 ;
1541 [label="(...)"] ;
1529 -> 1541 ;
1544 [label="enhancer_RUNX3 <= 265.067\nmse = 0.201\nsamples = 17\nvalue = -0.555"] ;
1266 -> 1544 ;
1545 [label="promoter_ZNF384 <= 1.032\nmse = 0.045\nsamples = 15\nvalue = -0.408"] ;
1544 -> 1545 ;
1546 [label="enhancer_CAGE <= 102.06\nmse = 0.0\nsamples = 8\nvalue = -0.23"] ;
1545 -> 1546 ;
1547 [label="(...)"] ;
1546 -> 1547 ;
1552 [label="(...)"] ;
1546 -> 1552 ;
1553 [label="promoter_H3K4me3 <= 9.267\nmse = 0.019\nsamples = 7\nvalue = -0.612"] ;
1545 -> 1553 ;
1554 [label="(...)"] ;
1553 -> 1554 ;
1557 [label="(...)"] ;
1553 -> 1557 ;
1560 [label="mse = -0.0\nsamples = 2\nvalue = -1.655"] ;
1544 -> 1560 ;
}